digraph Tree {
node [shape=box, style="filled, rounded", color="black", fontname="helvetica"] ;
edge [fontname="helvetica"] ;
0 [label="Online boarding <= 3.5\nentropy = 0.987\nsamples = 82875\nvalue = [47048, 35827]", fillcolor="#f9e1d0"] ;
1 [label="Inflight wifi service <= 0.5\nentropy = 0.605\nsamples = 41913\nvalue = [35700, 6213]", fillcolor="#ea975b"] ;
0 -> 1 [labeldistance=2.5, labelangle=45, headlabel="True"] ;
2 [label="Inflight entertainment <= 0.5\nentropy = 0.045\nsamples = 1412\nvalue = [7, 1405]", fillcolor="#3a9de5"] ;
1 -> 2 ;
3 [label="entropy = 0.0\nsamples = 7\nvalue = [7, 0]", fillcolor="#e58139"] ;
2 -> 3 ;
4 [label="entropy = 0.0\nsamples = 1405\nvalue = [0, 1405]", fillcolor="#399de5"] ;
2 -> 4 ;
5 [label="Inflight wifi service <= 3.5\nentropy = 0.526\nsamples = 40501\nvalue = [35693, 4808]", fillcolor="#e99254"] ;
1 -> 5 ;
6 [label="Class <= 2.5\nentropy = 0.349\nsamples = 36760\nvalue = [34353, 2407]", fillcolor="#e78a47"] ;
5 -> 6 ;
7 [label="Type of Travel <= 0.5\nentropy = 0.122\nsamples = 26425\nvalue = [25986, 439]", fillcolor="#e5833c"] ;
6 -> 7 ;
8 [label="(...)", fillcolor="#C0C0C0"] ;
7 -> 8 ;
559 [label="(...)", fillcolor="#C0C0C0"] ;
7 -> 559 ;
560 [label="Inflight entertainment <= 3.5\nentropy = 0.702\nsamples = 10335\nvalue = [8367, 1968]", fillcolor="#eb9f68"] ;
6 -> 560 ;
561 [label="(...)", fillcolor="#C0C0C0"] ;
560 -> 561 ;
1020 [label="(...)", fillcolor="#C0C0C0"] ;
560 -> 1020 ;
1217 [label="Inflight wifi service <= 4.5\nentropy = 0.941\nsamples = 3741\nvalue = [1340, 2401]", fillcolor="#a8d4f4"] ;
5 -> 1217 ;
1218 [label="Gate location <= 3.5\nentropy = 1.0\nsamples = 2570\nvalue = [1313, 1257]", fillcolor="#fefaf7"] ;
1217 -> 1218 ;
1219 [label="(...)", fillcolor="#C0C0C0"] ;
1218 -> 1219 ;
1584 [label="(...)", fillcolor="#C0C0C0"] ;
1218 -> 1584 ;
1913 [label="Leg room service <= 4.5\nentropy = 0.158\nsamples = 1171\nvalue = [27, 1144]", fillcolor="#3e9fe6"] ;
1217 -> 1913 ;
1914 [label="(...)", fillcolor="#C0C0C0"] ;
1913 -> 1914 ;
1943 [label="(...)", fillcolor="#C0C0C0"] ;
1913 -> 1943 ;
1944 [label="Type of Travel <= 0.5\nentropy = 0.851\nsamples = 40962\nvalue = [11348, 29614]", fillcolor="#85c3ef"] ;
0 -> 1944 [labeldistance=2.5, labelangle=-45, headlabel="False"] ;
1945 [label="Online boarding <= 4.5\nentropy = 0.608\nsamples = 32638\nvalue = [4876, 27762]", fillcolor="#5caeea"] ;
1944 -> 1945 ;
1946 [label="Inflight entertainment <= 3.5\nentropy = 0.806\nsamples = 18976\nvalue = [4680, 14296]", fillcolor="#7abdee"] ;
1945 -> 1946 ;
1947 [label="Checkin service <= 2.5\nentropy = 0.998\nsamples = 5559\nvalue = [2931, 2628]", fillcolor="#fcf2eb"] ;
1946 -> 1947 ;
1948 [label="(...)", fillcolor="#C0C0C0"] ;
1947 -> 1948 ;
2225 [label="(...)", fillcolor="#C0C0C0"] ;
1947 -> 2225 ;
3014 [label="Class <= 2.5\nentropy = 0.558\nsamples = 13417\nvalue = [1749, 11668]", fillcolor="#57ace9"] ;
1946 -> 3014 ;
3015 [label="(...)", fillcolor="#C0C0C0"] ;
3014 -> 3015 ;
3768 [label="(...)", fillcolor="#C0C0C0"] ;
3014 -> 3768 ;
4233 [label="Customer Type <= 0.5\nentropy = 0.108\nsamples = 13662\nvalue = [196, 13466]", fillcolor="#3c9ee5"] ;
1945 -> 4233 ;
4234 [label="Inflight entertainment <= 2.5\nentropy = 0.004\nsamples = 12166\nvalue = [4, 12162]", fillcolor="#399de5"] ;
4233 -> 4234 ;
4235 [label="(...)", fillcolor="#C0C0C0"] ;
4234 -> 4235 ;
4254 [label="(...)", fillcolor="#C0C0C0"] ;
4234 -> 4254 ;
4255 [label="Inflight wifi service <= 4.5\nentropy = 0.553\nsamples = 1496\nvalue = [192, 1304]", fillcolor="#56abe9"] ;
4233 -> 4255 ;
4256 [label="(...)", fillcolor="#C0C0C0"] ;
4255 -> 4256 ;
4327 [label="(...)", fillcolor="#C0C0C0"] ;
4255 -> 4327 ;
4328 [label="Inflight wifi service <= 4.5\nentropy = 0.765\nsamples = 8324\nvalue = [6472, 1852]", fillcolor="#eca572"] ;
1944 -> 4328 ;
4329 [label="Inflight wifi service <= 3.5\nentropy = 0.555\nsamples = 7432\nvalue = [6472, 960]", fillcolor="#e99456"] ;
4328 -> 4329 ;
4330 [label="Inflight wifi service <= 0.5\nentropy = 0.17\nsamples = 4064\nvalue = [3961, 103]", fillcolor="#e6843e"] ;
4329 -> 4330 ;
4331 [label="(...)", fillcolor="#C0C0C0"] ;
4330 -> 4331 ;
4332 [label="(...)", fillcolor="#C0C0C0"] ;
4330 -> 4332 ;
4333 [label="Arrival Delay in Minutes <= 5.5\nentropy = 0.818\nsamples = 3368\nvalue = [2511, 857]", fillcolor="#eeac7d"] ;
4329 -> 4333 ;
4334 [label="(...)", fillcolor="#C0C0C0"] ;
4333 -> 4334 ;
5597 [label="(...)", fillcolor="#C0C0C0"] ;
4333 -> 5597 ;
5874 [label="entropy = 0.0\nsamples = 892\nvalue = [0, 892]", fillcolor="#399de5"] ;
4328 -> 5874 ;
}